<?xml version="1.0"?>
<opencv_storage>
<stage9>
  <maxWeakCount>49</maxWeakCount>
  <stageThreshold>-8.3422142267227173e-01</stageThreshold>
  <weakClassifiers>
    <_>
      <internalNodes>
        0 -1 21132 -9.7643965855240822e-03</internalNodes>
      <leafValues>
        3.9622640609741211e-01 -6.8403907120227814e-02</leafValues></_>
    <_>
      <internalNodes>
        0 -1 77204 9.4505902379751205e-03</internalNodes>
      <leafValues>
        -1.4848145842552185e-01 1.8862955272197723e-01</leafValues></_>
    <_>
      <internalNodes>
        0 -1 76279 1.6337741399183869e-03</internalNodes>
      <leafValues>
        -1.4095510542392731e-01 2.4604724347591400e-01</leafValues></_>
    <_>
      <internalNodes>
        0 -1 33854 1.4340414665639400e-02</internalNodes>
      <leafValues>
        -1.0432346910238266e-01 3.6059466004371643e-01</leafValues></_>
    <_>
      <internalNodes>
        0 -1 69710 -8.4522729739546776e-03</internalNodes>
      <leafValues>
        2.7085745334625244e-01 -9.8204433917999268e-02</leafValues></_>
    <_>
      <internalNodes>
        0 -1 56152 3.7410072982311249e-03</internalNodes>
      <leafValues>
        -1.3979895412921906e-01 2.0139205455780029e-01</leafValues></_>
    <_>
      <internalNodes>
        0 -1 77241 9.2576742172241211e-03</internalNodes>
      <leafValues>
        6.5107464790344238e-02 -6.3787859678268433e-01</leafValues></_>
    <_>
      <internalNodes>
        0 -1 9099 -1.8260631710290909e-02</internalNodes>
      <leafValues>
        2.2772717475891113e-01 -1.0043958574533463e-01</leafValues></_>
    <_>
      <internalNodes>
        0 -1 10282 -2.0306026563048363e-03</internalNodes>
      <leafValues>
        2.0809376239776611e-01 -1.3706985116004944e-01</leafValues></_>
    <_>
      <internalNodes>
        0 -1 76656 8.0818869173526764e-04</internalNodes>
      <leafValues>
        1.1526919901371002e-01 -2.5952368974685669e-01</leafValues></_>
    <_>
      <internalNodes>
        0 -1 54600 -2.5717336684465408e-03</internalNodes>
      <leafValues>
        2.0255723595619202e-01 -1.1645391583442688e-01</leafValues></_>
    <_>
      <internalNodes>
        0 -1 14589 4.4093787670135498e-02</internalNodes>
      <leafValues>
        6.4990378916263580e-02 -4.4322896003723145e-01</leafValues></_>
    <_>
      <internalNodes>
        0 -1 3332 1.4597161673009396e-02</internalNodes>
      <leafValues>
        -7.5997829437255859e-02 3.3924216032028198e-01</leafValues></_>
    <_>
      <internalNodes>
        0 -1 15449 6.5628264565020800e-04</internalNodes>
      <leafValues>
        8.6008049547672272e-02 -2.7968886494636536e-01</leafValues></_>
    <_>
      <internalNodes>
        0 -1 77795 3.7059746682643890e-02</internalNodes>
      <leafValues>
        -3.8799617439508438e-02 6.4383524656295776e-01</leafValues></_>
    <_>
      <internalNodes>
        0 -1 51886 -3.8627125322818756e-03</internalNodes>
      <leafValues>
        1.1653602868318558e-01 -2.1064174175262451e-01</leafValues></_>
    <_>
      <internalNodes>
        0 -1 55211 2.6379175484180450e-02</internalNodes>
      <leafValues>
        1.0043188184499741e-01 -3.2528546452522278e-01</leafValues></_>
    <_>
      <internalNodes>
        0 -1 27954 5.6842733174562454e-03</internalNodes>
      <leafValues>
        -1.0088416934013367e-01 2.5114938616752625e-01</leafValues></_>
    <_>
      <internalNodes>
        0 -1 57986 1.4182676095515490e-03</internalNodes>
      <leafValues>
        -1.5619386732578278e-01 1.4930182695388794e-01</leafValues></_>
    <_>
      <internalNodes>
        0 -1 21538 5.6554134935140610e-03</internalNodes>
      <leafValues>
        -9.3990162014961243e-02 2.4446892738342285e-01</leafValues></_>
    <_>
      <internalNodes>
        0 -1 51265 6.2098437920212746e-03</internalNodes>
      <leafValues>
        3.7289287894964218e-02 -5.5793005228042603e-01</leafValues></_>
    <_>
      <internalNodes>
        0 -1 38725 4.0865971823222935e-04</internalNodes>
      <leafValues>
        -1.2938064336776733e-01 1.7594110965728760e-01</leafValues></_>
    <_>
      <internalNodes>
        0 -1 68279 -3.7233432522043586e-04</internalNodes>
      <leafValues>
        1.6570216417312622e-01 -1.4763943850994110e-01</leafValues></_>
    <_>
      <internalNodes>
        0 -1 23693 -9.0411961078643799e-02</internalNodes>
      <leafValues>
        3.8709843158721924e-01 -6.3786305487155914e-02</leafValues></_>
    <_>
      <internalNodes>
        0 -1 26461 -1.5284776454791427e-03</internalNodes>
      <leafValues>
        -3.9915668964385986e-01 6.8076565861701965e-02</leafValues></_>
    <_>
      <internalNodes>
        0 -1 23178 -7.4096134630963206e-04</internalNodes>
      <leafValues>
        1.2735700607299805e-01 -1.8417508900165558e-01</leafValues></_>
    <_>
      <internalNodes>
        0 -1 68653 -1.1199591681361198e-02</internalNodes>
      <leafValues>
        2.9407137632369995e-01 -7.6388977468013763e-02</leafValues></_>
    <_>
      <internalNodes>
        0 -1 28431 9.2154983431100845e-03</internalNodes>
      <leafValues>
        -8.1486351788043976e-02 3.0654615163803101e-01</leafValues></_>
    <_>
      <internalNodes>
        0 -1 7624 -1.0481341741979122e-03</internalNodes>
      <leafValues>
        -3.1720367074012756e-01 7.0632480084896088e-02</leafValues></_>
    <_>
      <internalNodes>
        0 -1 65492 3.3430472016334534e-02</internalNodes>
      <leafValues>
        -8.5807703435420990e-02 2.6120507717132568e-01</leafValues></_>
    <_>
      <internalNodes>
        0 -1 45741 -1.8980232998728752e-02</internalNodes>
      <leafValues>
        4.4446384906768799e-01 -4.8000067472457886e-02</leafValues></_>
    <_>
      <internalNodes>
        0 -1 61955 7.5728250667452812e-03</internalNodes>
      <leafValues>
        -6.4286760985851288e-02 3.5275384783744812e-01</leafValues></_>
    <_>
      <internalNodes>
        0 -1 7964 -1.6607413068413734e-02</internalNodes>
      <leafValues>
        1.4357699453830719e-01 -1.7129752039909363e-01</leafValues></_>
    <_>
      <internalNodes>
        0 -1 9033 -1.9411377608776093e-02</internalNodes>
      <leafValues>
        5.2746397256851196e-01 -5.3607292473316193e-02</leafValues></_>
    <_>
      <internalNodes>
        0 -1 34569 -1.6221439465880394e-02</internalNodes>
      <leafValues>
        5.4407399892807007e-01 -3.6052171140909195e-02</leafValues></_>
    <_>
      <internalNodes>
        0 -1 78281 -2.2848695516586304e-04</internalNodes>
      <leafValues>
        -1.9309224188327789e-01 1.1736232787370682e-01</leafValues></_>
    <_>
      <internalNodes>
        0 -1 61443 -1.6455989098176360e-03</internalNodes>
      <leafValues>
        2.8245568275451660e-01 -8.5938878357410431e-02</leafValues></_>
    <_>
      <internalNodes>
        0 -1 15519 4.1500888764858246e-02</internalNodes>
      <leafValues>
        -3.7725608795881271e-02 5.7786446809768677e-01</leafValues></_>
    <_>
      <internalNodes>
        0 -1 16730 4.0841563604772091e-03</internalNodes>
      <leafValues>
        -1.4652898907661438e-01 1.9207267463207245e-01</leafValues></_>
    <_>
      <internalNodes>
        0 -1 76205 -8.0021400935947895e-04</internalNodes>
      <leafValues>
        1.8227329850196838e-01 -1.2641397118568420e-01</leafValues></_>
    <_>
      <internalNodes>
        0 -1 74748 -1.0973848402500153e-02</internalNodes>
      <leafValues>
        -4.6396782994270325e-01 5.7125482708215714e-02</leafValues></_>
    <_>
      <internalNodes>
        0 -1 65716 1.4137888327240944e-02</internalNodes>
      <leafValues>
        -4.9465846270322800e-02 4.9813240766525269e-01</leafValues></_>
    <_>
      <internalNodes>
        0 -1 68640 5.3061824291944504e-03</internalNodes>
      <leafValues>
        4.7068782150745392e-02 -5.8829730749130249e-01</leafValues></_>
    <_>
      <internalNodes>
        0 -1 45216 5.8809516485780478e-04</internalNodes>
      <leafValues>
        1.3836498558521271e-01 -1.7239370942115784e-01</leafValues></_>
    <_>
      <internalNodes>
        0 -1 76463 1.6497909091413021e-03</internalNodes>
      <leafValues>
        -1.2493105232715607e-01 1.8181605637073517e-01</leafValues></_>
    <_>
      <internalNodes>
        0 -1 20343 -1.1589257046580315e-03</internalNodes>
      <leafValues>
        1.5494319796562195e-01 -1.4563308656215668e-01</leafValues></_>
    <_>
      <internalNodes>
        0 -1 33747 -1.7671480774879456e-02</internalNodes>
      <leafValues>
        1.9068916141986847e-01 -1.4520324766635895e-01</leafValues></_>
    <_>
      <internalNodes>
        0 -1 27407 1.4368771016597748e-01</internalNodes>
      <leafValues>
        -4.0572345256805420e-02 5.6087446212768555e-01</leafValues></_>
    <_>
      <internalNodes>
        0 -1 27074 -1.2579480186104774e-02</internalNodes>
      <leafValues>
        2.8357383608818054e-01 -7.8602381050586700e-02</leafValues></_></weakClassifiers></stage9>
</opencv_storage>
